-77.9799 0.9577 0.0675 -0.4919 0.5253 -7.6764 -4.8491 -3.1478 -1.3949 -86.0994 -55.1292 -26.7636 -7.4695 -307.0558 -249.7032 -271.6067 -118.5184 251.2170 -204.3405 -396.9420 -520.3074 238.3856 30.2286 -326.3778 -733.8145 -200.8701 -119.6133 -149.8044 -435.8815 -839.7857 -62.7598 119.7177 439.4558 -1183.2054 393.6920 538.1575 1827.0942 -1012.3048 1354.8091 990.1776 3218.7004 -700.1188 2444.3649 1268.9657 4081.4086 -100.1207 3044.2957 1154.3214 4203.8045 140.7607 2871.5090 957.1248 3464.4065 37.1428 1976.3966 423.8968 2177.4911 -282.3980 611.8888 -535.8026 869.2993 -442.2214 -978.1668 -1307.1927 -624.0284 -633.3579 -2097.9619 -2037.9465 -2122.7813 -556.6535 -2647.7383 -2128.7155 -3263.1132 -419.3339 -2612.4488 -2085.3946 -3413.9031 26.7522 -2092.9307 -1716.3907 -2576.9748 407.5085 -996.1278 -855.3119 -1531.6949 631.6549 665.5548 -400.4761 -352.3173 856.9011 2065.4647 139.5600 484.4155 1634.5338 1956.6821 469.9520 867.5760 1039.7556 1109.9162 571.7960 704.6216 558.6441 745.1993 377.0727 579.9821 413.2566 592.4778 369.4823 573.1749 370.8194 573.4300 369.8274 573.7491
483.1241 -0.0271 -0.9562 -0.3056 -0.4425 -4.3601 -2.3234 9.3711 0.4299 -64.8354 -49.5934 5.4982 -2.8550 -280.8724 -241.1069 3.5041 -12.1847 257.8860 118.2334 -60.2811 -77.7318 825.9842 432.4807 -164.9882 -213.9942 910.6978 169.6964 -358.9732 -458.2190 509.0171 -422.8446 -628.9056 -751.3800 276.5345 -832.2679 -682.9944 -1094.3971 62.6693 -757.4168 -1143.2243 -1269.6469 -65.1618 -263.4031 -1680.7190 -1713.0720 -222.3848 195.5637 -1848.4140 -2237.3052 -181.1480 329.5669 -1252.5602 -2346.9663 -97.8661 195.8831 -329.5279 -954.9029 -213.6570 -64.4225 357.3870 1218.7407 -238.1408 -324.3481 1021.3033 2405.1722 -292.5457 -458.4031 1391.5593 2038.1037 -278.1938 -379.6106 1228.6878 1255.4463 -218.9482 -87.4635 654.8032 1226.9838 -398.2118 364.0232 556.9801 923.0068 -448.1435 387.0374 331.1650 491.0596 -455.6347 246.0530 215.9431 26.5631 -250.3454 256.2224 -89.6163 -227.5185 425.4184 351.2701 -297.1428 -366.6615 130.4000 -44.0005 -354.4623 -423.8071 -238.4237 -369.4377 -385.4500 -442.5944 -378.8746 -443.7249 -391.6881 -446.7655 -384.7893 -446.2681 -383.1837 -446.8277
-7.7175 -0.1665 0.1376 0.5645 -0.6018 -9.1510 -0.4280 -5.2522 -0.6550 -282.3853 -256.4192 -28.7461 -9.0913 51.4332 -325.2388 13.5509 47.2323 661.2884 401.4916 184.5266 315.8571 911.3073 2016.3622 522.0471 797.7851 1558.7642 3006.3845 518.5507 1499.9903 1968.4261 3433.9843 663.0320 1802.7600 1783.6111 3437.5751 616.3076 1534.1329 1637.3746 2843.5471 488.6736 714.1548 951.9909 1720.9845 298.9587 -86.1162 8.9018 -85.1543 -20.4723 -383.6143 -1058.6367 -2549.6175 -177.2290 -409.3868 -1676.3843 -5302.3270 -390.5953 -254.1940 -2121.9962 -6919.1254 -224.8580 -334.0069 -2370.1275 -6683.8014 -357.4374 26.6732 -2400.3602 -4680.2872 -483.1072 264.6136 -1712.3028 -1948.1874 -399.5550 404.5916 -900.4565 825.2319 -602.1323 554.8381 78.1743 2713.2988 -621.1869 261.3222 991.9851 3507.4869 -762.1343 62.1559 1321.6243 3089.2910 -598.7865 -110.6904 1816.9710 1934.8646 -168.3964 -275.1306 1261.4537 731.0293 -8.7974 -236.4384 728.7800 236.9640 223.1296 -53.0093 539.7012 105.0246 426.7856 67.1314 506.5288 86.2183 500.8261 85.3208 506.9859 85.5182 506.6361 86.6358
-144.8882 -0.6832 0.1176 -5.9596 0.1192 -4.1509 -2.6165 -7.4314 -3.1909 -57.5773 -36.4702 75.3031 10.3063 -163.6244 -88.6163 561.7679 204.4628 61.6841 188.7586 1278.9481 879.0064 675.8623 1208.6381 1837.1673 1752.1375 1178.3117 3056.2112 2458.0442 2366.5787 1430.3686 3726.3310 2308.3910 2516.1767 1113.3460 2667.7065 2376.9153 1440.2738 892.4932 937.4968 2072.4890 -186.1178 355.8656 -235.0480 1777.4214 -1805.7815 -209.0666 -320.9000 1336.3593 -2949.9016 -548.9451 268.3386 1016.3144 -3660.0673 -735.3714 1506.2646 551.1961 -3606.9469 -668.5339 2441.2246 293.8457 -2851.7749 -427.8358 2045.7339 246.5617 -1791.2923 -495.2093 227.0111 506.9212 -588.0800 -1135.5783 -1787.0679 948.7909 478.4282 -1785.2160 -3309.7078 1107.5629 1409.8056 -2008.0976 -3953.8667 1331.3321 1906.4781 -1524.4494 -3450.2833 1340.4589 1756.0841 -1169.8405 -2080.3272 995.9040 1466.4890 -831.8782 -510.9800 769.4063 1091.9475 -17.6620 443.8593 448.5502 702.8637 210.2885 681.1633 70.4950 481.8376 92.2403 554.0284 -67.1696 424.2963 -101.3315 439.8550 -114.7436 422.9704 -124.1551 420.8873 -123.3081 420.6181
94.8018 0.6064 0.5319 -0.9517 -0.8217 -23.3813 -15.4478 -3.8229 0.9746 -214.5602 -147.6768 -24.6250 -4.8037 -584.5280 -502.1818 -70.2861 -99.5334 -968.7862 -957.2610 -160.4040 -216.1412 -319.4878 -1223.3462 -176.5373 -489.3060 110.5507 -1610.8816 -278.9082 -559.1950 194.6441 -2614.4153 -466.2739 -218.6775 196.4392 -3778.3716 -729.0364 381.5455 7.2296 -4336.7396 -536.3580 925.8320 -334.9272 -4234.4747 -240.5534 1325.0958 -358.6269 -3767.0367 159.7290 1213.9746 -69.1603 -3418.8491 637.7333 308.4744 629.9693 -2858.7597 369.4497 -869.3705 1382.6515 -1209.4289 -264.3276 -1949.6477 1683.6299 1827.3658 -593.7129 -2248.9857 2167.6684 4531.5319 -773.8918 -1097.2137 2167.3875 5554.4134 -624.1488 161.2342 1821.8310 4472.8534 -191.9509 589.9829 938.1929 2559.3848 324.0823 452.8733 130.3995 731.6188 261.5153 375.4588 -538.1679 -344.1117 116.2023 256.5217 -756.1418 -331.9528 38.0515 22.7955 -394.4462 68.8284 -150.9750 -278.5352 138.5896 119.4276 -399.8050 -435.0374 -213.8658 -295.6596 -521.1773 -485.7527 -522.9813 -477.5240 -548.8596 -481.2077 -550.7806 -481.2534 -550.8444 -482.3574
34.1148 -0.0332 -0.4367 -0.1290 0.8838 -0.8983 0.0347 -4.1829 -0.7703 -78.7805 -45.3779 -39.7870 10.7903 -188.6599 -263.0267 -123.6537 -14.2137 -155.2466 -581.3261 -238.1465 -140.4162 176.7575 -932.3311 -329.2513 -339.6520 364.7151 -410.4184 180.5758 -519.5315 79.6358 852.4559 589.5678 -651.7453 859.1148 1520.3027 773.4611 -611.8962 538.5751 1645.1378 878.7126 -379.9234 242.6072 1127.2587 658.8889 232.3722 74.4448 325.4125 296.2257 1131.2747 -450.3488 651.9892 -54.6534 1804.2018 -521.9867 1665.4394 -130.1503 2172.1290 -71.5312 2290.0756 321.0757 1820.0784 175.6845 1687.2718 618.7667 1380.4722 -41.2141 -44.2625 778.7769 656.1550 -577.3364 -1935.8815 383.2774 204.6545 -911.3082 -3192.8564 -56.8569 -374.3825 -409.2830 -3373.9370 -701.8778 -922.9156 -45.4439 -2389.1714 -959.4499 -1475.2181 377.9167 -772.7776 -1141.8451 -1670.9669 620.5098 390.9622 -1321.9816 -1383.1044 902.2268 662.9321 -858.4566 -726.0017 866.2772 623.0689 -110.1715 -63.6853 860.5938 414.3210 543.7770 243.1426 710.4285 272.1264 688.2606 268.0125 700.1150 264.7128 700.8972 264.5107
-69.0639 0.4091 0.7291 0.6387 0.8820 53.2805 26.9029 0.9591 0.0351 942.9404 692.6659 -5.3287 -3.9969 2247.0420 2228.8144 -67.5398 -45.3152 2852.2653 3499.7993 -316.6860 -244.2307 2620.1973 3680.7071 -858.4280 -659.4820 1867.8561 2711.5400 -1155.3326 -1492.8909 547.4624 1045.5340 -1339.5298 -2244.6083 -626.1356 -914.1568 -1202.4352 -2208.1478 -1838.7178 -2618.6205 -1250.3295 -1198.3082 -2518.7154 -3906.4973 -992.1867 -171.3898 -2662.3442 -4678.7925 -832.8814 803.5116 -2257.6677 -4411.9178 -940.0373 1838.8694 -1901.8456 -3194.2034 -515.6191 2127.1325 -1163.1766 -2125.1378 -249.7919 2229.6298 -542.7253 -1585.3599 -108.2136 1753.2595 385.3909 -1766.9669 -43.4313 987.7526 1013.4867 -1583.4457 -66.1711 146.1619 1470.8572 -178.9718 -258.4049 -570.2450 1835.5847 2127.2022 -376.6136 -899.2145 1972.2044 4199.2658 -430.2569 -760.3423 2514.8347 4551.1293 -340.8628 -518.2673 2092.5375 2690.5690 -320.9509 -329.3598 568.1793 769.8871 -324.2383 -237.9974 -274.5950 -80.6689 -392.7531 -269.2933 -519.6519 -292.3052 -503.9840 -326.4826 -579.0695 -341.7438 -578.1129 -344.8421 -581.7898 -344.3375 -581.7165 -343.4178
164.3186 0.4921 0.5444 9.6339 -0.1650 0.6121 -0.9008 22.7963 5.2945 -17.6876 -10.1879 94.7416 25.5844 -64.8404 -56.3966 206.1553 128.7729 -672.2426 -504.0701 445.7372 354.7873 -2274.3743 -2125.5160 541.4697 648.8992 -3125.6705 -4919.0394 756.1254 784.1729 -1380.3523 -6055.3479 882.3995 790.6625 -698.6695 -2956.2815 828.6783 667.4528 242.2513 1474.2200 590.9699 183.0666 1320.1535 4478.6403 213.2717 -500.4850 1799.8392 5615.9570 48.7080 -1201.6704 1869.0028 5146.9234 -335.1754 -1652.7684 1770.9347 3264.3138 3.2496 -2063.3445 1416.0088 1194.5976 416.8190 -1821.5851 1207.2603 132.4092 700.7316 -999.1103 671.7532 526.8029 1033.2183 -154.1974 571.7804 927.5253 814.0219 451.8166 356.1239 890.3341 1050.7228 413.3497 -27.6049 381.8050 697.3165 514.2734 -558.4786 -437.9371 358.0109 781.4236 -1380.7299 -1422.8774 472.1786 863.8494 -2148.3245 -2370.1156 360.8696 740.9206 -2464.3488 -2909.8518 273.2115 545.9281 -2261.5124 -2123.2152 123.5310 399.4853 -1195.5472 -650.8258 59.8391 332.5469 -186.4359 216.1534 11.2374 324.5480 3.0060 324.8968 4.3407 324.0243
-400.8623 -0.1122 -0.1685 -0.3391 -0.4106 -2.8094 -1.1245 -0.7053 -0.4943 -103.3497 -62.1609 -18.1590 -6.0882 -518.2242 -370.7708 -125.2345 -46.4521 -1336.6170 -1223.8566 -407.4482 -176.3885 48.9203 -671.9789 -657.6621 -427.8412 -136.2130 1176.0624 -1168.3669 -762.7673 43.1901 1196.9905 -1314.4340 -1277.3749 276.9091 264.3687 -1635.4931 -1672.6618 632.1211 -284.0912 -1500.3137 -1792.4542 1247.7033 -25.3054 -803.4969 -1099.9985 1814.7663 700.7506 207.6773 -25.4111 2188.4059 1175.3896 467.2642 1452.4387 1811.3013 1052.6137 148.4516 2290.0110 673.2461 483.1374 -681.6766 2230.4962 -614.6620 25.7805 -992.4574 1574.7603 -1200.4610 -9.7585 -938.2738 995.6298 -1115.3868 186.2549 -571.6719 189.0957 -882.0672 299.3004 -179.1786 -674.9034 -731.6813 -459.8309 -417.6168 -1090.4205 -725.3241 -1669.7847 -580.5753 -972.0542 -217.0639 -2665.4390 -348.3334 -605.0217 198.0519 -1707.2756 10.7015 -203.3810 179.4629 575.9540 314.1538 13.5188 1387.7391 1256.3503 431.7050 98.4214 690.1647 362.8895 352.3812 92.7814 362.5780 106.1570 341.2235 91.0485 349.6151 97.4064 350.9832 97.6878
-76.6589 -0.9896 0.0133 -2.5117 -0.7109 -2.1049 -1.0091 -6.3298 -1.5982 -37.8353 -28.1158 -35.0311 -13.7970 -190.6762 -130.7507 -126.9779 -43.8871 -950.1214 -735.8444 -329.4678 -175.0469 -2904.8123 -2414.0619 -389.0294 -334.5075 -2528.9203 -3061.8990 -801.7983 -423.2987 -2553.1912 -1099.8592 -812.9468 -404.2317 -1998.1677 195.8743 -880.5404 -265.6919 -1160.9680 -259.1675 -589.0266 -216.3311 -497.3525 -1104.5657 -498.9975 -259.8216 -143.2384 -1028.7305 -499.0737 -557.9343 370.4043 -63.1382 -318.3543 -802.8801 681.4025 1695.2769 -129.6573 -1019.5421 1046.1427 3296.8932 568.7245 -1409.6054 1569.3676 3855.5854 772.5363 -1478.6411 1839.6274 3769.7964 567.3742 -979.6228 1620.4802 3613.6884 416.0859 -26.6688 1468.5639 2887.6017 562.2111 838.2318 696.4157 1735.0818 920.0481 1432.7614 -198.9003 117.6256 1296.3392 1273.6939 -1083.7083 -1268.5597 1028.1741 642.3441 -1595.1446 -2419.2756 581.1448 80.6406 -2092.1989 -2649.9594 133.3657 -284.9776 -1964.7480 -1775.8781 -162.2954 -439.7662 -576.4632 -577.9171 -280.1873 -483.4588 -225.1229 -450.2434 -280.6355 -494.7230 -290.4260 -494.5185 -290.2622 -495.4608
